tree
version=v4
num_class=1
num_tree_per_iteration=1
label_index=0
max_feature_idx=14
objective=binary sigmoid:1
feature_names=slope_of_peak_exercise_st_segment resting_blood_pressure chest_pain_type num_major_vessels fasting_blood_sugar_gt_120_mg_per_dl resting_ekg_results serum_cholesterol_mg_per_dl oldpeak_eq_st_depression sex age max_heart_rate_achieved exercise_induced_angina thal_fixed_defect thal_normal thal_reversible_defect
feature_infos=[1:3] [94:180] [1:4] [0:3] [0:1] [0:2] [126:564] [0:6.2000000000000002] [0:1] [29:77] [96:202] [0:1] none [0:1] [0:1]
tree_sizes=762 771 769 879 872 767 774 778 873 763 777 767 772 781 773 770 778 767 877 772 771 673 775 878 881 675 874 876 768 777 770 772 868 873 771 872 778 874 776 891 772 773 877 769 882 673 877 772 878 881 775 673 771 770

Tree=0
num_leaves=6
num_cat=0
split_feature=13 2 3 7 10
split_gain=48.7203 11.6764 8.23775 2.16964 1.26413
threshold=1.0000000180025095e-35 3.5000000000000004 1.0000000180025095e-35 1.0500000000000003 157.50000000000003
decision_type=2 2 2 2 2
left_child=1 -1 4 -3 -2
right_child=2 3 -4 -5 -6
leaf_value=-0.21968201076364322 -0.27792615922269193 -0.1612685479195391 -0.23214354950371877 -0.11787568980677603 -0.30781460382667758
leaf_weight=6.4197531342506418 5.6790123879909542 4.9382716417312622 7.4074074625968924 6.9135802984237671 9.3827161192893964
leaf_count=26 23 20 30 28 38
internal_value=-0.226007 -0.165373 -0.275314 -0.135956 -0.296545
internal_weight=40.7407 18.2716 22.4691 11.8519 15.0617
internal_count=165 74 91 48 61
is_linear=0
shrinkage=1


Tree=1
num_leaves=6
num_cat=0
split_feature=2 14 3 7 10
split_gain=37.5948 11.5095 7.80322 2.43499 1.648
threshold=3.5000000000000004 1.0000000180025095e-35 1.0000000180025095e-35 1.0500000000000003 158.50000000000003
decision_type=2 2 2 2 2
left_child=2 -2 4 -3 -1
right_child=1 3 -4 -5 -6
leaf_value=-0.04765801630472008 0.0020506955828401298 0.058424220768577853 -0.0030106301068781103 0.10625521560048308 -0.081598937512797953
leaf_weight=6.1400728970766094 7.1341401189565667 4.9676311016082764 6.9103377163410178 5.7300724983215332 8.5658263713121396
leaf_count=25 29 20 28 23 35
internal_value=-0.00250153 0.0512404 -0.0468347 0.0840442 -0.0674278
internal_weight=39.4481 17.8318 21.6162 10.6977 14.7059
internal_count=160 72 88 43 60
is_linear=0
shrinkage=0.05


Tree=2
num_leaves=6
num_cat=0
split_feature=13 2 9 1 6
split_gain=38.8729 10.0205 8.46463 1.82811 1.76299
threshold=1.0000000180025095e-35 3.5000000000000004 57.500000000000007 121.00000000000001 234.50000000000003
decision_type=2 2 2 2 2
left_child=1 -1 3 -2 -3
right_child=2 4 -4 -5 -6
leaf_value=0.00095680665496340267 -0.048070743919146591 0.057758512124596463 -0.0049362666782612917 -0.086067878423058131 0.095613792317127258
leaf_weight=6.1436524540185937 5.3371384739875811 5.491643488407135 7.8395884484052649 7.7795936018228531 6.9910284578800201
leaf_count=25 22 22 32 32 28
internal_value=0.000673895 0.0532314 -0.0460401 -0.070607 0.0789597
internal_weight=39.5826 18.6263 20.9563 13.1167 12.4827
internal_count=161 75 86 54 50
is_linear=0
shrinkage=0.05


Tree=3
num_leaves=7
num_cat=0
split_feature=14 3 7 9 1 7
split_gain=34.2882 10.7278 7.92037 2.31297 0.144753 0.105096
threshold=1.0000000180025095e-35 1.0000000180025095e-35 0.65000000000000002 54.500000000000007 131.00000000000003 1.0000000180025095e-35
decision_type=2 2 2 2 2 2
left_child=1 3 -2 5 -4 -1
right_child=2 -3 4 -5 -6 -7
leaf_value=-0.072594047401860082 0.0055328986913370445 0.0095528831625738692 0.08474131133346989 -0.03885584211687243 0.073225585357029721 -0.082954700014584229
leaf_weight=5.0115284770727211 5.4656881839036968 7.6219222098588935 5.7149179726839048 6.31942594051361 5.2227630913257599 4.7843551933765411
leaf_count=21 22 31 23 26 21 20
internal_value=-0.000908221 -0.0393233 0.0546821 -0.0624399 0.0792425 -0.0776542
internal_weight=40.1406 23.7372 16.4034 16.1153 10.9377 9.79588
internal_count=164 98 66 67 44 41
is_linear=0
shrinkage=0.05


Tree=4
num_leaves=7
num_cat=0
split_feature=13 7 9 10 10 9
split_gain=28.7123 8.71692 6.91855 2.81757 2.46245 0.133243
threshold=1.0000000180025095e-35 0.55000000000000016 58.500000000000007 137.50000000000003 157.50000000000003 45.500000000000007
decision_type=2 2 2 2 2 2
left_child=1 -1 4 -3 -2 -6
right_child=2 3 -4 -5 5 -7
leaf_value=-0.001868300492525546 -0.031779577288187928 0.097824113150274644 -0.0035262517134701001 0.048430372514158375 -0.069795980193229745 -0.08168343461542131
leaf_weight=6.4548179507255581 4.8021585941314724 5.225962430238722 8.3191956132650358 6.4512591361999512 4.6935583502054197 4.7356727570295334
leaf_count=26 20 21 34 26 20 20
internal_value=-0.00208347 0.0447607 -0.039749 0.0705358 -0.0609236 -0.0757663
internal_weight=40.6826 18.132 22.5506 11.6772 14.2314 9.42923
internal_count=167 73 94 47 60 40
is_linear=0
shrinkage=0.05


Tree=5
num_leaves=6
num_cat=0
split_feature=2 7 9 3 1
split_gain=32.3687 8.44458 7.63022 2.04266 1.94613
threshold=3.5000000000000004 0.45000000000000007 55.500000000000007 1.0000000180025095e-35 121.00000000000001
decision_type=2 2 2 2 2
left_child=2 -2 4 -3 -1
right_child=1 3 -4 -5 -6
leaf_value=-0.039596218755144158 0.0064487148525099154 0.053291275073252389 -0.0036866474657590328 0.095199308067599117 -0.0806271431968337
leaf_weight=4.7103141993284243 6.6298209130764034 5.1520492881536466 8.8063407093286497 6.6744945049285889 7.4779160022735596
leaf_count=20 27 21 36 27 32
internal_value=0.00331604 0.0516202 -0.0391482 0.0769427 -0.0647702
internal_weight=39.4509 18.4564 20.9946 11.8265 12.1882
internal_count=163 75 88 48 52
is_linear=0
shrinkage=0.05


Tree=6
num_leaves=6
num_cat=0
split_feature=2 14 8 9 7
split_gain=27.0227 8.71184 7.46996 7.9298 1.54603
threshold=3.5000000000000004 1.0000000180025095e-35 1.0000000180025095e-35 55.500000000000007 1.0500000000000003
decision_type=2 2 2 2 2
left_child=2 -2 -1 -4 -3
right_child=1 4 3 -5 -6
leaf_value=-0.081115541280719072 -0.00095643493085119228 0.050146708875767713 -0.050374325134101422 0.024893207553907722 0.086851630653026979
leaf_weight=7.0138130635023126 6.8238032907247552 5.2347953915596008 8.1636280417442304 6.1247092932462701 6.3475731015205383
leaf_count=30 28 21 35 25 26
internal_value=-0.000514364 0.0438591 -0.0388554 -0.0181108 0.0702624
internal_weight=39.7083 18.4062 21.3022 14.2883 11.5824
internal_count=165 75 90 60 47
is_linear=0
shrinkage=0.05


Tree=7
num_leaves=6
num_cat=0
split_feature=13 7 6 3 8
split_gain=27.1646 8.16651 5.86207 2.07054 1.49257
threshold=1.0000000180025095e-35 0.55000000000000016 270.50000000000006 1.0000000180025095e-35 1.0000000180025095e-35
decision_type=2 2 2 2 2
left_child=1 -1 4 -3 -2
right_child=2 3 -4 -5 -6
leaf_value=-0.0023216077439133817 -0.072393317591187598 0.043494818657405662 -0.00023540003021037972 0.083555546049737653 -0.040303050903671409
leaf_weight=6.4263700544834164 6.9123823195695895 5.6348102539777738 7.1372754871845236 7.5432107448577881 7.6156197786331177
leaf_count=26 30 23 30 31 33
internal_value=0.00124594 0.0438903 -0.0373419 0.0664259 -0.0555715
internal_weight=41.2697 19.6044 21.6653 13.178 14.528
internal_count=173 80 93 54 63
is_linear=0
shrinkage=0.05


Tree=8
num_leaves=7
num_cat=0
split_feature=14 3 2 9 7 9
split_gain=25.6384 9.57551 7.44064 0.839324 0.819177 0.121333
threshold=1.0000000180025095e-35 1.0000000180025095e-35 3.5000000000000004 55.500000000000007 1.0500000000000003 46.500000000000007
decision_type=2 2 2 2 2 2
left_child=1 3 -2 5 -4 -1
right_child=2 -3 4 -5 -6 -7
leaf_value=-0.075037900300122029 0.00059276830935201582 0.011172565104261333 0.054473397742741951 -0.04354334842083029 0.081544166476333127 -0.063452029830763174
leaf_weight=4.6367505341768283 5.9225579053163537 7.04644551873207 4.9624106287956238 4.8111706972122184 6.3971191793680191 4.4080872982740402
leaf_count=21 24 29 20 20 27 20
internal_value=0.000970972 -0.0362829 0.046029 -0.0604163 0.0697183 -0.0693914
internal_weight=38.1845 20.9025 17.2821 13.856 11.3595 9.04484
internal_count=161 90 71 61 47 41
is_linear=0
shrinkage=0.05


Tree=9
num_leaves=6
num_cat=0
split_feature=2 9 7 1 6
split_gain=21.9264 6.69832 6.52698 1.00029 0.85536
threshold=3.5000000000000004 55.500000000000007 0.65000000000000002 121.00000000000001 251.00000000000003
decision_type=2 2 2 2 2
left_child=1 3 -2 -1 -4
right_child=2 -3 4 -5 -6
leaf_value=-0.045656603997478895 0.0019573119091548384 -0.0061867694220029048 0.048914941027513398 -0.075157936119879337 0.078312447563286536
leaf_weight=4.8740522116422671 7.3051879703998592 9.1863843947648984 4.7460976690053922 6.999783456325531 5.1695372313261032
leaf_count=22 30 38 20 32 22
internal_value=-0.00402714 -0.0382454 0.0378201 -0.063048 0.0642414
internal_weight=38.281 21.0602 17.2208 11.8738 9.91563
internal_count=164 92 72 54 42
is_linear=0
shrinkage=0.05


Tree=10
num_leaves=6
num_cat=0
split_feature=13 0 9 3 10
split_gain=19.2511 7.18398 4.94068 2.42158 0.363849
threshold=1.0000000180025095e-35 1.5000000000000002 57.500000000000007 1.0000000180025095e-35 160.50000000000003
decision_type=2 2 2 2 2
left_child=1 -1 4 -3 -2
right_child=2 3 -4 -5 -6
leaf_value=-0.0045864249413644191 -0.045833896012767592 0.033144506005218323 -0.0055372137869801434 0.079128549253860037 -0.064111328014104116
leaf_weight=6.5806141495704678 4.9171392023563403 4.8073095679283124 8.6921828985214216 7.0788756757974625 6.1017966568470001
leaf_count=27 22 20 36 30 29
internal_value=0.00064433 0.0373262 -0.0337219 0.0605305 -0.0559551
internal_weight=38.1779 18.4668 19.7111 11.8862 11.0189
internal_count=164 77 87 50 51
is_linear=0
shrinkage=0.05


Tree=11
num_leaves=6
num_cat=0
split_feature=2 7 8 9 6
split_gain=22.6957 7.1116 4.94682 4.94752 0.570836
threshold=3.5000000000000004 0.65000000000000002 1.0000000180025095e-35 55.500000000000007 251.00000000000003
decision_type=2 2 2 2 2
left_child=2 -2 -1 -4 -3
right_child=1 4 3 -5 -6
leaf_value=-0.064370044154850897 0.0055578014154903776 0.059667496808969149 -0.04224089172243916 0.019566641009719485 0.083654001426129221
leaf_weight=8.0739019513130188 7.0321220904588726 5.1269935518503171 7.2429244369268417 5.8551611304283142 4.8049486726522446
leaf_count=37 29 22 33 24 21
internal_value=0.000940108 0.0440314 -0.0335868 -0.0146114 0.0712719
internal_weight=38.1361 16.9641 21.172 13.0981 9.93194
internal_count=166 72 94 57 43
is_linear=0
shrinkage=0.05


Tree=12
num_leaves=6
num_cat=0
split_feature=2 7 0 10 3
split_gain=19.2138 6.18403 5.15239 2.20181 0.609398
threshold=3.5000000000000004 0.45000000000000007 1.5000000000000002 160.50000000000003 1.0000000180025095e-35
decision_type=2 2 2 2 2
left_child=2 -2 3 -1 -3
right_child=1 4 -4 -5 -6
leaf_value=-0.029854525637307384 0.0012817241245381525 0.048546444687457287 -0.0021847191227621627 -0.073838153295078243 0.072551268264869004
leaf_weight=5.0241179019212741 6.8111406117677715 4.6637967824935895 7.7935364693403235 6.5612858235836029 6.104536160826683
leaf_count=22 28 20 34 31 27
internal_value=0.000718105 0.0385696 -0.0336186 -0.0547642 0.0621547
internal_weight=36.9584 17.5795 19.3789 11.5854 10.7683
internal_count=162 75 87 53 47
is_linear=0
shrinkage=0.05


Tree=13
num_leaves=6
num_cat=0
split_feature=14 8 3 0 5
split_gain=15.2726 6.10133 11.8162 4.72513 0.126664
threshold=1.0000000180025095e-35 1.0000000180025095e-35 1.0000000180025095e-35 1.5000000000000002 1.0000000180025095e-35
decision_type=2 2 2 2 2
left_child=1 4 -3 -2 -1
right_child=3 2 -4 -5 -6
leaf_value=-0.06716207672164401 2.0677069628930275e-05 -0.048606195657310731 0.053555046988670044 0.058042592063123136 -0.05554057627162249
leaf_weight=4.5798704773187637 5.7855399399995777 6.9711906164884567 4.7650292962789536 8.9169778078794479 4.8038646429777145
leaf_count=21 24 32 20 39 22
internal_value=-0.00391851 -0.031158 -0.00712765 0.0352106 -0.0612126
internal_weight=35.8225 21.12 11.7362 14.7025 9.38374
internal_count=158 95 52 63 43
is_linear=0
shrinkage=0.05


Tree=14
num_leaves=6
num_cat=0
split_feature=14 7 3 6 10
split_gain=19.1032 4.27349 3.35644 1.94976 1.31138
threshold=1.0000000180025095e-35 0.45000000000000007 1.0000000180025095e-35 241.00000000000003 142.50000000000003
decision_type=2 2 2 2 2
left_child=2 -2 3 -1 -3
right_child=1 4 -4 -5 -6
leaf_value=-0.06695238704195873 0.0025831551592201095 0.075963188605445903 -0.0060521982733533382 -0.029783127067521394 0.039400979629883731
leaf_weight=7.4020407497882861 5.410916566848754 4.9725683480501157 6.599235773086547 6.7416065633296967 4.8391489833593369
leaf_count=36 22 23 28 32 21
internal_value=-0.00428004 0.0382573 -0.035497 -0.0492356 0.0579307
internal_weight=35.9655 15.2226 20.7429 14.1436 9.81172
internal_count=162 66 96 68 44
is_linear=0
shrinkage=0.05


Tree=15
num_leaves=6
num_cat=0
split_feature=2 11 0 10 7
split_gain=14.9574 5.0882 4.48303 1.50717 0.993708
threshold=3.5000000000000004 1.0000000180025095e-35 1.5000000000000002 160.50000000000003 1.4500000000000002
decision_type=2 2 2 2 2
left_child=2 -2 3 -1 -3
right_child=1 4 -4 -5 -6
leaf_value=-0.029124989679238211 0.0025956480050306503 0.043059094221253577 -0.0001918749773894287 -0.064998076165284815 0.07581169658186418
leaf_weight=5.1247836947441119 7.2126750499010095 4.8904508054256439 7.4433900862932196 6.8303372859954834 4.398895189166069
leaf_count=23 31 21 33 34 21
internal_value=-0.000887413 0.0341042 -0.0306542 -0.0496204 0.0585688
internal_weight=35.9005 16.502 19.3985 11.9551 9.28935
internal_count=163 73 90 57 42
is_linear=0
shrinkage=0.05


Tree=16
num_leaves=6
num_cat=0
split_feature=13 7 6 8 11
split_gain=12.133 4.56073 4.48019 2.61956 2.38465
threshold=1.0000000180025095e-35 0.55000000000000016 279.00000000000006 1.0000000180025095e-35 1.0000000180025095e-35
decision_type=2 2 2 2 2
left_child=1 -1 3 -2 -3
right_child=2 4 -4 -5 -6
leaf_value=-0.00048016353543406848 -0.063919972472916767 0.028295350252488922 0.014409253143263665 -0.017100158725405872 0.07463066451010987
leaf_weight=5.5922483056783703 5.8807630836963671 4.8719582110643369 5.4957478791475287 6.0723355710506439 6.4568570107221603
leaf_count=23 29 21 24 29 31
internal_value=0.00629916 0.0364663 -0.0229555 -0.0401349 0.0547042
internal_weight=34.3699 16.9211 17.4488 11.9531 11.3288
internal_count=157 75 82 58 52
is_linear=0
shrinkage=0.05


Tree=17
num_leaves=6
num_cat=0
split_feature=2 5 8 9 6
split_gain=14.8327 4.97462 3.09157 2.81971 1.24395
threshold=3.5000000000000004 1.0000000180025095e-35 1.0000000180025095e-35 55.500000000000007 257.00000000000006
decision_type=2 2 2 2 2
left_child=2 -2 -1 -4 -3
right_child=1 4 3 -5 -6
leaf_value=-0.057168320562839298 0.0044754524192499928 0.041426256200503858 -0.036059783107084444 0.01291628006550111 0.0783852164097808
leaf_weight=6.555697202682496 7.0575561374425897 4.4362469166517258 6.6508287489414215 5.2655942738056183 4.6768768131732941
leaf_count=33 32 20 33 22 21
internal_value=0.00102091 0.0359886 -0.0295902 -0.0144184 0.0603937
internal_weight=34.6428 16.1707 18.4721 11.9164 9.11312
internal_count=161 73 88 55 41
is_linear=0
shrinkage=0.05


Tree=18
num_leaves=7
num_cat=0
split_feature=14 9 8 2 1 5
split_gain=11.5372 5.33415 3.78306 3.60672 1.92559 1.33852
threshold=1.0000000180025095e-35 54.500000000000007 1.0000000180025095e-35 3.5000000000000004 121.00000000000001 1.0000000180025095e-35
decision_type=2 2 2 2 2 2
left_child=1 4 -3 -2 -1 -5
right_child=3 2 -4 5 -6 -7
leaf_value=-0.022876435547774882 0.0046035533716615677 -0.029512114822246829 0.029722258309333546 0.036470643728040091 -0.067991268422987347 0.074130500828242449
leaf_weight=4.1911066472530383 5.5791333466768238 4.9442907422780973 5.9263479113578796 4.7154479622840881 5.4289000332355499 4.7222583144903183
leaf_count=22 23 22 25 22 29 23
internal_value=0.00318117 -0.0212178 0.0027807 0.0364739 -0.0483363 0.0553142
internal_weight=35.5075 20.4906 10.8706 15.0168 9.62001 9.43771
internal_count=166 98 47 68 51 45
is_linear=0
shrinkage=0.05


Tree=19
num_leaves=6
num_cat=0
split_feature=3 14 2 6 1
split_gain=10.3733 6.18585 5.3164 2.01008 0.104222
threshold=1.0000000180025095e-35 1.0000000180025095e-35 3.5000000000000004 241.00000000000003 129.00000000000003
decision_type=2 2 2 2 2
left_child=1 3 -2 -1 -4
right_child=2 -3 4 -5 -6
leaf_value=-0.063683120565004914 -0.00089489205491232772 0.017338843803542288 0.053893381429629829 -0.022943785400920666 0.064946353208319027
leaf_weight=6.1279980689287203 6.4386167973279926 6.3607710152864447 4.374689906835556 5.9848441779613495 4.1616460233926773
leaf_count=32 28 28 20 30 20
internal_value=0.00248178 -0.0225877 0.0334084 -0.0435542 0.0592819
internal_weight=33.4486 18.4736 14.975 12.1128 8.53634
internal_count=158 90 68 62 40
is_linear=0
shrinkage=0.05


Tree=20
num_leaves=6
num_cat=0
split_feature=14 3 2 6 10
split_gain=9.0161 5.99791 3.66871 1.79923 1.10366
threshold=1.0000000180025095e-35 1.0000000180025095e-35 3.5000000000000004 241.00000000000003 140.50000000000003
decision_type=2 2 2 2 2
left_child=1 3 -2 -1 -4
right_child=2 -3 4 -5 -6
leaf_value=-0.062329777747258758 -0.0017255702045992775 0.014979768900808418 0.03107603838423105 -0.023952119506350858 0.067263692278521553
leaf_weight=6.1511898487806338 5.3495168387889835 6.9218798875808707 3.807942733168602 6.065423384308815 4.7167269438505173
leaf_count=33 22 30 20 30 22
internal_value=4.16627e-05 -0.0222062 0.0307311 -0.0432757 0.0510988
internal_weight=33.0127 19.1385 13.8742 12.2166 8.52467
internal_count=157 93 64 63 42
is_linear=0
shrinkage=0.05


Tree=21
num_leaves=5
num_cat=0
split_feature=3 11 5 9
split_gain=12.0312 6.8092 4.36296 2.00317
threshold=1.0000000180025095e-35 1.0000000180025095e-35 1.0000000180025095e-35 48.500000000000007
decision_type=2 2 2 2
left_child=1 3 -2 -1
right_child=2 -3 -4 -5
leaf_value=-0.023416267854202637 0.0025897985560707588 0.022027218508368706 0.060606952747960324 -0.06340200763405239
leaf_weight=5.188724443316465 5.9408433437347394 4.8071470111608496 7.129058375954628 7.9026206433773041
leaf_count=29 27 23 33 39
internal_value=-0.00223448 -0.0288658 0.0342356 -0.0475538
internal_weight=30.9684 17.8985 13.0699 13.0913
internal_count=151 91 60 68
is_linear=0
shrinkage=0.05


Tree=22
num_leaves=6
num_cat=0
split_feature=14 7 6 10 8
split_gain=9.71916 4.43384 3.5929 1.60027 1.27839
threshold=1.0000000180025095e-35 0.65000000000000002 270.50000000000006 140.50000000000003 1.0000000180025095e-35
decision_type=2 2 2 2 2
left_child=2 -2 4 -3 -1
right_child=1 3 -4 -5 -6
leaf_value=-0.059874659707737067 -0.0070434550272416539 0.071048197257224596 0.0055842897283766837 0.028682833165853669 -0.027609244800124805
leaf_weight=5.4656330794096011 5.4869895428419104 4.5039288401603681 5.9079447686672202 4.4130439609289169 7.0038886666297913
leaf_count=30 23 24 27 21 36
internal_value=-0.00243144 0.0283205 -0.0265343 0.0500814 -0.0417518
internal_weight=32.7814 14.404 18.3775 8.91697 12.4695
internal_count=161 68 93 45 66
is_linear=0
shrinkage=0.05


Tree=23
num_leaves=7
num_cat=0
split_feature=3 11 7 7 9 6
split_gain=9.1083 4.91535 4.66514 1.3866 1.31076 0.789712
threshold=1.0000000180025095e-35 1.0000000180025095e-35 0.55000000000000016 1.0000000180025095e-35 52.500000000000007 257.00000000000006
decision_type=2 2 2 2 2 2
left_child=1 3 -2 -1 -5 -4
right_child=2 -3 5 4 -6 -7
leaf_value=-0.01969667394186643 -0.0049985084686173797 0.018445708833548832 0.066759838712664929 -0.028748142745679623 -0.068289490808868966 0.03644954962111565
leaf_weight=5.8281432539224651 6.0538002997636786 5.1435167193412772 4.4979023784399015 3.6716213300824148 4.8834191560745239 4.1149729043245316
leaf_count=32 26 25 22 21 23 21
internal_value=-0.0011391 -0.0235041 0.0286369 -0.0385056 -0.0513193 0.0522785
internal_weight=34.1934 19.5267 14.6667 14.3832 8.55504 8.61288
internal_count=170 101 69 76 44 43
is_linear=0
shrinkage=0.05


Tree=24
num_leaves=7
num_cat=0
split_feature=14 10 2 8 7 5
split_gain=9.05941 4.11339 3.36004 2.06934 1.23685 0.485022
threshold=1.0000000180025095e-35 158.50000000000003 3.5000000000000004 1.0000000180025095e-35 1.0500000000000003 1.0000000180025095e-35
decision_type=2 2 2 2 2 2
left_child=1 3 -2 -1 -4 -3
right_child=2 5 4 -5 -6 -7
leaf_value=-0.033007551075698076 -0.0061091342440346809 -0.066132348811622596 0.026184021521908098 0.011267634783240164 0.063569313824127283 -0.040890542057683089
leaf_weight=4.5173095166683215 5.055269688367841 4.2773032933473578 4.3986654281616211 6.3471467196941376 4.4510421454906464 3.4285656437277794
leaf_count=22 21 25 19 29 27 20
internal_value=-0.00410807 -0.0269598 0.0264108 -0.00714145 0.0449873 -0.0549015
internal_weight=32.4753 18.5703 13.905 10.8645 8.84971 7.70587
internal_count=163 96 67 51 46 45
is_linear=0
shrinkage=0.05


Tree=25
num_leaves=5
num_cat=0
split_feature=3 14 7 10
split_gain=10.1183 5.7864 5.12789 0.684359
threshold=1.0000000180025095e-35 1.0000000180025095e-35 0.55000000000000016 154.50000000000003
decision_type=2 2 2 2
left_child=1 3 -2 -1
right_child=2 -3 -4 -5
leaf_value=-0.072207438897504181 -0.012054801159790851 0.0017448207581232868 0.049274715803987228 -0.046388429666756652
leaf_weight=4.5529485791921669 5.9578236788511258 6.7538581490516654 7.9647404551506042 5.8825436979532242
leaf_count=23 26 31 40 38
internal_value=-0.0086531 -0.0343151 0.0230302 -0.0576531
internal_weight=31.1119 17.1894 13.9226 10.4355
internal_count=158 92 66 61
is_linear=0
shrinkage=0.05


Tree=26
num_leaves=7
num_cat=0
split_feature=2 10 11 6 10 10
split_gain=8.94625 3.92302 3.65245 0.977864 0.64009 0.59509
threshold=3.5000000000000004 158.50000000000003 1.0000000180025095e-35 264.00000000000006 142.50000000000003 172.50000000000003
decision_type=2 2 2 2 2 2
left_child=1 4 -2 -4 -1 -3
right_child=2 5 3 -5 -6 -7
leaf_value=0.014149619240412964 0.0047669851661336499 -0.060076478675070488 0.03805044101550964 0.073040889446526189 -0.012002432552823003 -0.032525010190668613
leaf_weight=4.317615747451784 7.2068296223878834 4.3800956904888144 4.4539524912834167 3.6192695498466492 5.1075967103242874 3.5470369383692741
leaf_count=20 34 26 23 20 24 20
internal_value=0.00274161 -0.0218252 0.0306402 0.0537369 -2.23832e-05 -0.0477484
internal_weight=32.6324 17.3523 15.2801 8.07322 9.42521 7.92713
internal_count=167 90 77 43 44 46
is_linear=0
shrinkage=0.05


Tree=27
num_leaves=7
num_cat=0
split_feature=14 7 3 2 6 9
split_gain=6.33158 3.81754 3.56865 1.62917 1.60599 0.0987926
threshold=1.0000000180025095e-35 0.65000000000000002 1.0000000180025095e-35 3.5000000000000004 264.00000000000006 49.500000000000007
decision_type=2 2 2 2 2 2
left_child=2 -2 4 -3 5 -1
right_child=1 3 -4 -5 -6 -7
leaf_value=-0.046191776493573672 -0.012184692303054266 0.018671803481185544 0.0055600222642339971 0.062846151630581715 -0.011099640100025071 -0.057834053274336522
leaf_weight=3.2003371119499224 4.7154289484024074 3.656432777643202 7.2173762619495383 4.8634205237030983 3.3447581827640533 4.231381393969059
leaf_count=22 20 15 32 31 18 23
internal_value=-0.00234014 0.0239106 -0.0216487 0.043888 -0.0398714 -0.0528205
internal_weight=31.2291 13.2353 17.9939 8.51985 10.7765 7.43172
internal_count=161 66 95 46 63 45
is_linear=0
shrinkage=0.05


Tree=28
num_leaves=6
num_cat=0
split_feature=7 2 3 9 1
split_gain=7.68388 5.72516 3.90079 2.18244 1.22595
threshold=2.1000000000000005 3.5000000000000004 1.0000000180025095e-35 55.500000000000007 121.00000000000001
decision_type=2 2 2 2 2
left_child=1 3 -3 4 -1
right_child=-2 2 -4 -5 -6
leaf_value=-0.024447890147821415 0.062863778903526402 -0.01237219597757884 0.043668784611587422 -0.010174910722464568 -0.065514154208189429
leaf_weight=3.0795212835073507 4.3475145921111098 6.0776183754205704 6.3488477468490601 7.2102213501930237 4.4341825097799301
leaf_count=18 23 30 31 33 28
internal_value=0.00114932 -0.00873284 0.0162599 -0.0298258 -0.048683
internal_weight=31.4979 27.1504 12.4265 14.7239 7.5137
internal_count=163 140 61 79 46
is_linear=0
shrinkage=0.05


Tree=29
num_leaves=6
num_cat=0
split_feature=11 3 0 8 10
split_gain=6.88725 4.97929 3.67765 2.34424 1.70428
threshold=1.0000000180025095e-35 1.0000000180025095e-35 1.5000000000000002 1.0000000180025095e-35 158.50000000000003
decision_type=2 2 2 2 2
left_child=1 3 -2 -1 -5
right_child=2 -3 -4 4 -6
leaf_value=-0.06469935872758853 0.0024994811629757145 0.016065628429035438 0.06558036612414346 0.0020136562562462963 -0.043811156936917381
leaf_weight=4.1286694481968889 4.1215801686048525 8.3307695239782316 5.2583820894360542 4.5309242457151413 3.6744206100702286
leaf_count=27 20 38 30 22 22
internal_value=0.00233014 -0.0137984 0.0378625 -0.0339694 -0.0185071
internal_weight=30.0447 20.6648 9.37996 12.334 8.20534
internal_count=159 109 50 71 44
is_linear=0
shrinkage=0.05


Tree=30
num_leaves=6
num_cat=0
split_feature=2 0 5 9 6
split_gain=8.83203 4.43173 3.0887 1.14908 0.971814
threshold=3.5000000000000004 1.5000000000000002 1.0000000180025095e-35 56.500000000000007 268.50000000000006
decision_type=2 2 2 2 2
left_child=1 3 -2 -1 -4
right_child=2 -3 4 -5 -6
leaf_value=-0.065311224552789857 -0.0020688862001941605 0.0025691015030944678 0.028197696876147722 -0.030684189926911788 0.062193146897563036
leaf_weight=5.3603702560067195 5.9379996508359918 6.9114082455635062 4.2450225949287415 4.3321220874786377 4.1646900996565819
leaf_count=35 31 35 23 21 21
internal_value=-0.00319317 -0.0280214 0.0255393 -0.0498344 0.0450331
internal_weight=30.9516 16.6039 14.3477 9.69249 8.40971
internal_count=166 91 75 56 44
is_linear=0
shrinkage=0.05


Tree=31
num_leaves=6
num_cat=0
split_feature=7 2 7 10 8
split_gain=6.05422 6.03335 2.52101 2.07743 0.4192
threshold=2.1000000000000005 3.5000000000000004 0.45000000000000007 152.50000000000003 1.0000000180025095e-35
decision_type=2 2 2 2 2
left_child=1 3 -3 -1 -5
right_child=-2 2 -4 4 -6
leaf_value=-0.0094883914597317012 0.056394801546376709 -0.0037611741237653694 0.041932787096152752 -0.062645186845733378 -0.0388512433653143
leaf_weight=6.1168290749192273 4.1626014858484259 6.6125154048204422 5.5537737905979156 3.1276690438389778 4.5352602899074554
leaf_count=30 24 29 32 23 26
internal_value=0.000418175 -0.00856232 0.0170976 -0.0312177 -0.0485629
internal_weight=30.1086 25.946 12.1663 13.7798 7.66293
internal_count=164 140 61 79 49
is_linear=0
shrinkage=0.05


Tree=32
num_leaves=7
num_cat=0
split_feature=14 9 9 0 1 6
split_gain=5.66833 3.4062 4.55559 3.33472 1.67413 0.657882
threshold=1.0000000180025095e-35 54.500000000000007 62.500000000000007 1.5000000000000002 121.00000000000001 257.00000000000006
decision_type=2 2 2 2 2 2
left_child=1 4 -3 -2 -1 -5
right_child=3 2 -4 5 -6 -7
leaf_value=-0.013628318971246773 -0.0013696024293578942 0.043024389750919663 -0.025710184372588592 0.063739517004361188 -0.063078625303004926 0.033921625340898452
leaf_weight=2.8950240463018444 5.7043031156063098 4.0879544615745527 5.8752666711807251 3.8690912052989006 4.1868445724248886 3.5444783419370651
leaf_count=20 26 20 27 22 29 21
internal_value=0.00266249 -0.0163523 0.00249192 0.02737 -0.0428636 0.0494834
internal_weight=30.163 17.0451 9.96322 13.1179 7.08187 7.41357
internal_count=165 96 47 69 49 43
is_linear=0
shrinkage=0.05


Tree=33
num_leaves=7
num_cat=0
split_feature=3 11 1 9 1 5
split_gain=5.212 4.1022 1.89913 1.32727 1.45356 0.543175
threshold=1.5000000000000002 1.0000000180025095e-35 113.50000000000001 58.500000000000007 125.50000000000001 1.0000000180025095e-35
decision_type=2 2 2 2 2 2
left_child=1 2 -1 4 -4 -3
right_child=-2 5 3 -5 -6 -7
leaf_value=0.0078885036419414079 0.041423038395105582 0.0058746700806198418 -0.020875228071018471 -0.014307276683860219 -0.065200542541781245 0.033009723812684542
leaf_weight=3.4210754260420897 5.9011276960372916 3.6002409234642974 3.1134260073304159 5.1067279577255249 4.5562401562929153 3.7811765968799591
leaf_count=19 32 19 18 24 31 21
internal_value=-0.000601443 -0.011119 -0.0251977 -0.034057 -0.0472071 0.0197748
internal_weight=29.48 23.5789 16.1975 12.7764 7.66967 7.38142
internal_count=164 132 92 73 49 40
is_linear=0
shrinkage=0.05


Tree=34
num_leaves=6
num_cat=0
split_feature=8 3 6 2 7
split_gain=4.93948 5.00585 3.319 1.733 1.71484
threshold=1.0000000180025095e-35 1.0000000180025095e-35 228.50000000000003 3.5000000000000004 0.55000000000000016
decision_type=2 2 2 2 2
left_child=3 2 -2 -1 -3
right_child=1 4 -4 -5 -6
leaf_value=-0.048559972863131191 -0.035842641931827526 0.017024059411978768 0.018855100262662215 -0.0029767099566914892 0.060312142567813753
leaf_weight=4.9590241163969058 5.2450259774923342 3.8791308999061567 5.8852877840399742 3.5978940352797508 5.5771466866135597
leaf_count=32 30 17 32 18 33
internal_value=0.00253437 0.0158054 -0.00692055 -0.0293938 0.0425546
internal_weight=29.1435 20.5866 11.1303 8.55692 9.45628
internal_count=162 112 62 50 50
is_linear=0
shrinkage=0.05


Tree=35
num_leaves=7
num_cat=0
split_feature=7 13 7 10 7 6
split_gain=6.39231 6.06767 2.61493 2.36112 2.21734 0.36483
threshold=2.1000000000000005 1.0000000180025095e-35 0.15000000000000005 162.50000000000003 0.55000000000000016 247.00000000000003
decision_type=2 2 2 2 2 2
left_child=1 4 3 -3 -1 -4
right_child=-2 2 5 -5 -6 -7
leaf_value=-0.0035132563085095328 0.062093900118013218 0.021730399805176503 -0.040366916887332439 -0.036173607500904217 0.039890699879908599 -0.063391668469751569
leaf_weight=5.6691079139709508 3.7987709417939177 3.3919458314776421 3.5131935924291611 3.6603551805019379 6.1179233565926552 3.3715078756213188
leaf_count=25 23 17 22 27 35 19
internal_value=0.00155031 -0.0073904 -0.0297225 -0.00832351 0.0190151 -0.0516424
internal_weight=29.5228 25.724 13.937 7.0523 11.787 6.8847
internal_count=168 145 85 44 60 41
is_linear=0
shrinkage=0.05


Tree=36
num_leaves=6
num_cat=0
split_feature=11 14 6 7 8
split_gain=4.95768 2.71834 1.86989 1.70029 1.12922
threshold=1.0000000180025095e-35 1.0000000180025095e-35 270.50000000000006 1.4500000000000002 1.0000000180025095e-35
decision_type=2 2 2 2 2
left_child=1 2 4 -2 -1
right_child=3 -3 -4 -5 -6
leaf_value=-0.063409732217141551 0.0145402788453612 0.011645641120055582 -0.00034864351101628917 0.059568865711611421 -0.025732388059074081
leaf_weight=3.3223703503608721 5.358919709920885 7.1660313531756392 4.3440621048212043 3.4436526820063591 4.9538737908005714
leaf_count=25 28 34 23 23 31
internal_value=0.00093909 -0.0129487 -0.0269138 0.0321559 -0.0408574
internal_weight=28.5889 19.7863 12.6203 8.80257 8.27624
internal_count=164 113 79 51 56
is_linear=0
shrinkage=0.05


Tree=37
num_leaves=7
num_cat=0
split_feature=14 9 3 9 6 1
split_gain=4.1889 3.02258 4.13665 1.86003 2.18417 1.50937
threshold=1.0000000180025095e-35 51.500000000000007 1.0000000180025095e-35 54.500000000000007 254.50000000000003 121.00000000000001
decision_type=2 2 2 2 2 2
left_child=3 -2 -3 5 -5 -1
right_child=1 2 -4 4 -6 -7
leaf_value=-0.01222377538519712 0.059196805929721041 -0.037751874217781541 0.033732952031594453 -0.028749275249737513 0.020087821013198476 -0.061229760011809457
leaf_weight=2.8283384740352639 3.5746054127812394 3.4440262317657453 4.907515287399292 4.5647575631737691 4.5930203944444656 3.5350522398948669
leaf_count=20 18 17 31 23 22 28
internal_value=-0.00156159 0.0207218 0.00425389 -0.0186837 -0.00425537 -0.0394481
internal_weight=27.4473 11.9261 8.35154 15.5212 9.15778 6.36339
internal_count=159 66 48 93 45 48
is_linear=0
shrinkage=0.05


Tree=38
num_leaves=6
num_cat=0
split_feature=3 0 14 9 7
split_gain=5.83134 3.53283 2.73119 2.80914 0.111732
threshold=1.0000000180025095e-35 1.5000000000000002 1.0000000180025095e-35 58.500000000000007 0.55000000000000016
decision_type=2 2 2 2 2
left_child=2 -2 3 4 -1
right_child=1 -3 -4 -5 -6
leaf_value=-0.059907537867382898 0.0026345600183893579 0.058006241724642672 0.0067503219438003262 0.003177647455913308 -0.046116832468309804
leaf_weight=3.7047419399023109 5.9391508027911168 5.5937038958072662 6.9711885750293723 3.2278476059436798 2.4334772080183029
leaf_count=31 29 35 35 16 18
internal_value=0.00227001 0.0294911 -0.016946 -0.0345833 -0.0544403
internal_weight=27.8701 11.5329 16.3373 9.36607 6.13822
internal_count=164 64 100 65 49
is_linear=0
shrinkage=0.05


Tree=39
num_leaves=7
num_cat=0
split_feature=11 7 8 3 10 3
split_gain=4.66804 3.42972 2.54723 1.67024 0.896787 0.455052
threshold=1.0000000180025095e-35 0.65000000000000002 1.0000000180025095e-35 1.0000000180025095e-35 158.50000000000003 1.0000000180025095e-35
decision_type=2 2 2 2 2 2
left_child=2 -2 5 4 -4 -1
right_child=1 -3 3 -5 -6 -7
leaf_value=-0.049831111370358783 -0.0083670774744390632 0.055716581083103879 0.00019042925908418281 0.022420702012495162 -0.033279549079361669 -0.024556093340744989
leaf_weight=3.8914203234016904 3.5272535830736178 5.1163979172706604 4.4358945041894895 4.7614418491721162 3.64651770144701 3.2833640426397324
leaf_count=31 17 35 22 23 25 17
internal_value=-0.00114226 0.0295657 -0.0144013 -0.00107093 -0.0149101 -0.0382646
internal_weight=28.6623 8.64365 20.0186 12.8439 8.08241 7.17478
internal_count=170 52 118 70 47 48
is_linear=0
shrinkage=0.05


Tree=40
num_leaves=6
num_cat=0
split_feature=7 2 5 10 6
split_gain=3.97385 3.21927 4.38079 3.82751 0.371777
threshold=2.1000000000000005 3.5000000000000004 1.0000000180025095e-35 152.50000000000003 264.00000000000006
decision_type=2 2 2 2 2
left_child=1 3 -3 -1 -5
right_child=-2 2 -4 4 -6
leaf_value=0.0081774791028021761 0.05083308705040062 -0.016970071115636722 0.047840688830708869 -0.055730873780815399 -0.031955091284328434
leaf_weight=5.8050016164779699 3.6888173446059218 5.1901758015155792 5.2394352406263351 4.3507254645228386 2.6430236399173737
leaf_count=31 23 28 28 33 17
internal_value=0.00262423 -0.00503165 0.0155884 -0.0218347 -0.0467457
internal_weight=26.9172 23.2284 10.4296 12.7988 6.99375
internal_count=160 137 56 81 50
is_linear=0
shrinkage=0.05


Tree=41
num_leaves=6
num_cat=0
split_feature=11 9 9 9 7
split_gain=3.58675 4.04329 3.95665 3.03565 1.80525
threshold=1.0000000180025095e-35 64.500000000000014 57.500000000000007 49.500000000000007 0.65000000000000002
decision_type=2 2 2 2 2
left_child=1 2 3 -1 -2
right_child=4 -3 -4 -5 -6
leaf_value=0.0074118428379304716 -0.0016903045778390057 -0.057095643666841694 0.03464405544515739 -0.049005149497265386 0.046801067141499578
leaf_weight=4.9385720379650646 3.2404599934816352 4.0771786645054808 5.1221943795680991 4.6101662069559097 4.7076705992221832
leaf_count=35 15 20 27 29 33
internal_value=-0.00111652 -0.0130495 -0.0008087 -0.0198265 0.0270311
internal_weight=26.6962 18.7481 14.6709 9.54874 7.94813
internal_count=159 111 91 64 48
is_linear=0
shrinkage=0.05


Tree=42
num_leaves=7
num_cat=0
split_feature=3 9 6 9 14 10
split_gain=3.77952 2.93817 2.8773 2.16332 1.32371 1.57855
threshold=1.0000000180025095e-35 62.500000000000007 270.50000000000006 55.500000000000007 1.0000000180025095e-35 151.50000000000003
decision_type=2 2 2 2 2 2
left_child=2 3 4 -2 5 -1
right_child=1 -3 -4 -5 -6 -7
leaf_value=-0.070160481468685351 0.012227646111836033 -0.0091821593357755867 0.019781649776719101 0.066715862666702888 -0.0074942280491839932 -0.021368784660891343
leaf_weight=2.9305987954139727 3.3598031178116781 4.6047355681657791 4.2377091571688643 3.9788502305746078 4.4766663163900375 3.8165509700775146
leaf_count=17 20 23 25 23 23 34
internal_value=0.000998578 0.0221255 -0.0153211 0.0417699 -0.0285746 -0.0425613
internal_weight=27.4049 11.9434 15.4615 7.33865 11.2238 6.74715
internal_count=165 66 99 43 74 51
is_linear=0
shrinkage=0.05


Tree=43
num_leaves=6
num_cat=0
split_feature=3 2 8 6 7
split_gain=3.3238 2.57128 1.7839 1.97513 1.43929
threshold=1.5000000000000002 3.5000000000000004 1.0000000180025095e-35 228.50000000000003 0.45000000000000007
decision_type=2 2 2 2 2
left_child=1 2 -1 -4 -3
right_child=-2 4 3 -5 -6
leaf_value=-0.053044842428134079 0.034772829248299296 -0.0073676656834954172 -0.043922401035212416 0.0052620585769579294 0.03405257790297736
leaf_weight=3.5868192575871971 5.4664627611637107 4.3774299919605255 3.0883667692542076 6.0197742879390717 4.0264662429690361
leaf_count=29 33 20 20 31 27
internal_value=2.67322e-05 -0.00897557 -0.0231773 -0.0114153 0.0124776
internal_weight=26.5653 21.0989 12.695 9.10814 8.4039
internal_count=160 127 80 51 47
is_linear=0
shrinkage=0.05


Tree=44
num_leaves=7
num_cat=0
split_feature=7 13 7 8 9 1
split_gain=3.39817 3.19603 2.15536 1.31368 0.796601 0.521987
threshold=2.1000000000000005 1.0000000180025095e-35 0.45000000000000007 1.0000000180025095e-35 54.500000000000007 133.00000000000003
decision_type=2 2 2 2 2 2
left_child=1 2 -1 5 -5 -3
right_child=-2 3 -4 4 -6 -7
leaf_value=-0.0091385144645667275 0.045357728114992217 -0.054547857714512149 0.035650245007418688 -0.023339644778533467 0.011867443882588782 -0.025781575795688651
leaf_weight=5.3456676304340398 3.6073929816484442 3.0883363112807274 5.3989803344011307 3.6538992300629616 2.8675174936652184 3.2225280925631523
leaf_count=24 24 23 35 28 14 20
internal_value=0.000163774 -0.00675114 0.013367 -0.0235963 -0.00785881 -0.0398589
internal_weight=27.1843 23.5769 10.7446 12.8323 6.52142 6.31086
internal_count=168 144 59 85 42 43
is_linear=0
shrinkage=0.05


Tree=45
num_leaves=5
num_cat=0
split_feature=2 11 8 9
split_gain=3.58059 3.13604 2.38311 2.76979
threshold=3.5000000000000004 1.0000000180025095e-35 1.0000000180025095e-35 56.500000000000007
decision_type=2 2 2 2
left_child=2 -2 -1 -4
right_child=1 -3 3 -5
leaf_value=-0.053452950123011295 -0.0075919849494136687 0.044174518602230539 -0.033942871647721522 0.01998220928323256
leaf_weight=4.0822679474949828 6.3767119199037552 5.4059204012155533 4.9115073941648006 4.6222645342350006
leaf_count=34 34 37 32 21
internal_value=-0.00402245 0.0161587 -0.0214862 -0.00779834
internal_weight=25.3987 11.7826 13.616 9.53377
internal_count=158 71 87 53
is_linear=0
shrinkage=0.05


Tree=46
num_leaves=7
num_cat=0
split_feature=3 8 5 6 9 10
split_gain=4.22634 3.98199 3.81937 1.95273 1.45547 0.572332
threshold=1.0000000180025095e-35 1.0000000180025095e-35 1.0000000180025095e-35 241.00000000000003 50.500000000000007 152.50000000000003
decision_type=2 2 2 2 2 2
left_child=3 -2 -3 4 -1 -5
right_child=1 2 -4 5 -6 -7
leaf_value=-0.011379765264759489 -0.021748584113306525 0.0023194329042133962 0.071674046014535669 0.015157224337865417 -0.057105088165797846 -0.013659588136107254
leaf_weight=3.2446847707033175 3.4102328792214367 3.4182871356606483 4.7346296831965446 3.6517259515821934 3.7536095641553402 3.2623695768415928
leaf_count=27 19 20 28 21 23 22
internal_value=0.00128061 0.0236191 0.0425956 -0.0172858 -0.035905 0.0015602
internal_weight=25.4755 11.5631 8.15292 13.9124 6.99829 6.9141
internal_count=160 67 48 93 50 43
is_linear=0
shrinkage=0.05


Tree=47
num_leaves=6
num_cat=0
split_feature=3 9 9 13 1
split_gain=5.30674 2.81355 3.30217 2.70921 1.16342
threshold=1.5000000000000002 62.500000000000007 57.500000000000007 1.0000000180025095e-35 121.00000000000001
decision_type=2 2 2 2 2
left_child=1 2 3 -1 -5
right_child=-2 -3 -4 4 -6
leaf_value=0.013161372504650902 0.04810635540023369 -0.0399737671257447 0.046425500402316217 -0.0078363410094832667 -0.052492014082008334
leaf_weight=6.2083907276392036 5.0886051543056956 5.3842993676662436 3.2917164862155905 2.4950448423624039 3.5110160373151302
leaf_count=34 33 27 18 21 31
internal_value=0.00231886 -0.00883429 0.00197845 -0.00999974 -0.0339411
internal_weight=25.9791 20.8905 15.5062 12.2145 6.00606
internal_count=164 131 104 86 52
is_linear=0
shrinkage=0.05


Tree=48
num_leaves=7
num_cat=0
split_feature=14 2 8 3 1 1
split_gain=4.65869 3.07287 1.78442 3.46678 0.734159 0.681335
threshold=1.0000000180025095e-35 3.5000000000000004 1.0000000180025095e-35 1.0000000180025095e-35 131.00000000000003 135.50000000000003
decision_type=2 2 2 2 2 2
left_child=2 -2 5 -4 -3 -1
right_child=1 4 3 -5 -6 -7
leaf_value=-0.053332357338381792 -0.0037065836386167305 0.066437303508321374 -0.032402723159164287 0.03237893320476453 0.030584627177575804 -0.020097815430699023
leaf_weight=3.3909477666020384 4.8558071851730347 3.167533777654171 4.5219475254416466 3.8012515157461166 2.5998122543096542 2.8284523375332355
leaf_count=28 22 24 34 19 20 17
internal_value=0.000430042 0.0256005 -0.0179566 -0.00281658 0.0502756 -0.038218
internal_weight=25.1658 10.6232 14.5426 8.3232 5.76735 6.2194
internal_count=164 66 98 53 44 45
is_linear=0
shrinkage=0.05


Tree=49
num_leaves=7
num_cat=0
split_feature=3 6 5 14 0 10
split_gain=3.06859 3.37052 3.02525 1.19187 0.561428 0.0453801
threshold=1.0000000180025095e-35 228.50000000000003 1.0000000180025095e-35 1.0000000180025095e-35 1.5000000000000002 157.50000000000003
decision_type=2 2 2 2 2 2
left_child=1 5 -2 -3 -4 -1
right_child=2 3 4 -5 -6 -7
leaf_value=-0.042619639045669733 -0.0089132080187687996 -0.011419996037464679 0.028371866297363598 0.026305828664273237 0.057548147683493325 -0.052126586955627309
leaf_weight=2.4426407068967846 5.1246922090649587 5.1346029341220838 3.4606344997882843 3.5349018052220345 3.1493254750967026 2.5821531787514687
leaf_count=17 30 36 17 19 24 23
internal_value=0.00115589 -0.0149224 0.0199192 0.00396232 0.0422729 -0.0475051
internal_weight=25.429 13.6943 11.7347 8.6695 6.60996 5.02479
internal_count=166 95 71 55 41 40
is_linear=0
shrinkage=0.05


Tree=50
num_leaves=6
num_cat=0
split_feature=8 2 9 3 9
split_gain=2.87409 2.23384 3.64476 2.70167 2.16552
threshold=1.0000000180025095e-35 3.5000000000000004 56.500000000000007 1.0000000180025095e-35 62.500000000000007
decision_type=2 2 2 2 2
left_child=4 2 -2 -3 -1
right_child=1 3 -4 -5 -6
leaf_value=-0.0082600049554338081 -0.043109539389552289 -0.0075575529466690916 0.020887107436586415 0.048712220879313484 -0.066222692986908666
leaf_weight=3.6580877229571369 4.649792093783617 3.8999967128038406 4.2660024911165237 4.7085512541234493 2.8801154717803001
leaf_count=31 33 22 20 35 17
internal_value=-0.00550238 0.00505261 -0.0124886 0.0232199 -0.0337929
internal_weight=24.0625 17.5243 8.91579 8.60855 6.5382
internal_count=158 110 53 57 48
is_linear=0
shrinkage=0.05


Tree=51
num_leaves=5
num_cat=0
split_feature=0 5 14 6
split_gain=2.41807 4.14843 2.74996 0.699302
threshold=1.5000000000000002 1.0000000180025095e-35 1.0000000180025095e-35 241.00000000000003
decision_type=2 2 2 2
left_child=1 3 -2 -1
right_child=2 -3 -4 -5
leaf_value=-0.058033240187113623 -0.0054865288093703425 0.014855899453318382 0.045195477754270193 -0.024148865451064913
leaf_weight=3.3915262147784233 5.5916345678269863 6.3179715611040592 5.1337108239531517 2.7632804661989212
leaf_count=24 35 39 39 19
internal_value=0.00136432 -0.013605 0.0187725 -0.0428204
internal_weight=23.1981 12.4728 10.7253 6.15481
internal_count=156 82 74 43
is_linear=0
shrinkage=0.05


Tree=52
num_leaves=6
num_cat=0
split_feature=7 6 0 11 10
split_gain=2.40785 2.53176 2.46788 2.26478 1.92147
threshold=0.65000000000000002 270.50000000000006 1.5000000000000002 1.0000000180025095e-35 149.50000000000003
decision_type=2 2 2 2 2
left_child=1 4 -2 -4 -1
right_child=2 -3 3 -5 -6
leaf_value=-0.060120524001336745 -0.019574400593238082 0.017132471467811484 0.012519929557018554 0.067589170457782066 -0.011538594587876285
leaf_weight=3.3365358002483863 3.3838636688888046 4.1432322822511187 5.5550654269754887 2.8121670819818974 5.2186385095119476
leaf_count=18 23 23 35 26 39
internal_value=0.000145514 -0.0149488 0.0164567 0.0310283 -0.0304856
internal_weight=24.4495 12.6984 11.7511 8.36723 8.55517
internal_count=164 80 84 61 57
is_linear=0
shrinkage=0.05


Tree=53
num_leaves=6
num_cat=0
split_feature=3 0 6 14 7
split_gain=2.63663 2.91464 2.28453 1.43062 1.03994
threshold=1.0000000180025095e-35 1.5000000000000002 228.50000000000003 1.0000000180025095e-35 0.8500000000000002
decision_type=2 2 2 2 2
left_child=2 -2 4 -4 -1
right_child=1 -3 3 -5 -6
leaf_value=-0.057230149510417619 -0.0022458823365692211 0.050503377299684606 -0.01060059543453238 0.03271923546481021 -0.012933211895651629
leaf_weight=2.8237282708287266 5.5942949727177602 4.9234591871500015 5.0618278421461564 3.0567838847637177 2.4962375611066818
leaf_count=24 29 37 37 17 19
internal_value=0.00369663 0.0224465 -0.0109781 0.00571 -0.0364451
internal_weight=23.9563 10.5178 13.4386 8.11861 5.31997
internal_count=163 66 97 54 43
is_linear=0
shrinkage=0.05


end of trees

feature_importances:
oldpeak_eq_st_depression=38
age=36
num_major_vessels=32
serum_cholesterol_mg_per_dl=27
chest_pain_type=26
max_heart_rate_achieved=24
thal_reversible_defect=22
sex=20
resting_blood_pressure=15
slope_of_peak_exercise_st_segment=12
exercise_induced_angina=12
resting_ekg_results=11
thal_normal=9

parameters:
[boosting: gbdt]
[objective: binary]
[metric: auc]
[tree_learner: serial]
[device_type: cpu]
[data_sample_strategy: bagging]
[data: ]
[valid: ]
[num_iterations: 100]
[learning_rate: 0.05]
[num_leaves: 31]
[num_threads: 0]
[seed: 123456]
[deterministic: 0]
[force_col_wise: 0]
[force_row_wise: 0]
[histogram_pool_size: -1]
[max_depth: -1]
[min_data_in_leaf: 20]
[min_sum_hessian_in_leaf: 0.001]
[bagging_fraction: 0.9]
[pos_bagging_fraction: 1]
[neg_bagging_fraction: 1]
[bagging_freq: 1]
[bagging_seed: 123456]
[bagging_by_query: 0]
[feature_fraction: 0.9]
[feature_fraction_bynode: 1]
[feature_fraction_seed: 123456]
[extra_trees: 0]
[extra_seed: 20368]
[early_stopping_round: 10]
[early_stopping_min_delta: 0]
[first_metric_only: 0]
[max_delta_step: 0]
[lambda_l1: 0]
[lambda_l2: 0]
[linear_lambda: 0]
[min_gain_to_split: 0]
[drop_rate: 0.1]
[max_drop: 50]
[skip_drop: 0.5]
[xgboost_dart_mode: 0]
[uniform_drop: 0]
[drop_seed: 10150]
[top_rate: 0.2]
[other_rate: 0.1]
[min_data_per_group: 100]
[max_cat_threshold: 32]
[cat_l2: 10]
[cat_smooth: 10]
[max_cat_to_onehot: 4]
[top_k: 20]
[monotone_constraints: ]
[monotone_constraints_method: basic]
[monotone_penalty: 0]
[feature_contri: ]
[forcedsplits_filename: ]
[refit_decay_rate: 0.9]
[cegb_tradeoff: 1]
[cegb_penalty_split: 0]
[cegb_penalty_feature_lazy: ]
[cegb_penalty_feature_coupled: ]
[path_smooth: 0]
[interaction_constraints: ]
[verbosity: 3]
[saved_feature_importance_type: 0]
[use_quantized_grad: 0]
[num_grad_quant_bins: 4]
[quant_train_renew_leaf: 0]
[stochastic_rounding: 1]
[linear_tree: 0]
[max_bin: 255]
[max_bin_by_feature: ]
[min_data_in_bin: 3]
[bin_construct_sample_cnt: 200000]
[data_random_seed: 9977]
[is_enable_sparse: 1]
[enable_bundle: 1]
[use_missing: 1]
[zero_as_missing: 0]
[feature_pre_filter: 1]
[pre_partition: 0]
[two_round: 0]
[header: 0]
[label_column: ]
[weight_column: ]
[group_column: ]
[ignore_column: ]
[categorical_feature: ]
[forcedbins_filename: ]
[precise_float_parser: 0]
[parser_config_file: ]
[objective_seed: 7706]
[num_class: 1]
[is_unbalance: 0]
[scale_pos_weight: 1]
[sigmoid: 1]
[boost_from_average: 1]
[reg_sqrt: 0]
[alpha: 0.9]
[fair_c: 1]
[poisson_max_delta_step: 0.7]
[tweedie_variance_power: 1.5]
[lambdarank_truncation_level: 30]
[lambdarank_norm: 1]
[label_gain: ]
[lambdarank_position_bias_regularization: 0]
[eval_at: ]
[multi_error_top_k: 1]
[auc_mu_weights: ]
[num_machines: 1]
[local_listen_port: 12400]
[time_out: 120]
[machine_list_filename: ]
[machines: ]
[gpu_platform_id: -1]
[gpu_device_id: -1]
[gpu_use_dp: 0]
[num_gpu: 1]

end of parameters
